digraph Tree {
0 [label="sepal length (cm) <= 6.3500\ngini = 0.665866666667\nsamples = 150", shape="box"] ;
1 [label="sepal width (cm) <= 3.0500\ngini = 0.542695473251\nsamples = 108", shape="box"] ;
0 -> 1 ;
2 [label="sepal length (cm) <= 4.8500\ngini = 0.259444444444\nsamples = 60", shape="box"] ;
1 -> 2 ;
3 [label="gini = 0.0000\nsamples = 6\nvalue = [ 0.  0.  6.]", shape="box"] ;
2 -> 3 ;
4 [label="gini = 0.1063\nsamples = 54\nvalue = [ 51.   1.   2.]", shape="box"] ;
2 -> 4 ;
5 [label="sepal length (cm) <= 5.8500\ngini = 0.225694444444\nsamples = 48", shape="box"] ;
1 -> 5 ;
6 [label="gini = 0.0000\nsamples = 42\nvalue = [  0.   0.  42.]", shape="box"] ;
5 -> 6 ;
7 [label="gini = 0.4444\nsamples = 6\nvalue = [ 2.  4.  0.]", shape="box"] ;
5 -> 7 ;
8 [label="gini = 0.0000\nsamples = 42\nvalue = [  0.  42.   0.]", shape="box"] ;
0 -> 8 ;
}